digraph Tree {
node [shape=box, style="filled, rounded", color="black", fontname=helvetica] ;
edge [fontname=helvetica] ;
0 [label="X[1] <= 44.5\ngini = 0.37\nsamples = 15556\nvalue = [11704, 3852]", fillcolor="#eeaa7a"] ;
1 [label="X[0] <= 10.5\ngini = 0.5\nsamples = 4917\nvalue = [2645, 2272]", fillcolor="#fbede3"] ;
0 -> 1 [labeldistance=2.5, labelangle=45, headlabel="True"] ;
2 [label="X[1] <= 19.5\ngini = 0.46\nsamples = 3421\nvalue = [2195, 1226]", fillcolor="#f4c7a8"] ;
1 -> 2 ;
3 [label="X[3] <= 3687.01\ngini = 0.32\nsamples = 810\nvalue = [651, 159]", fillcolor="#eba069"] ;
2 -> 3 ;
4 [label="gini = 0.36\nsamples = 513\nvalue = [391, 122]", fillcolor="#eda877"] ;
3 -> 4 ;
5 [label="gini = 0.22\nsamples = 297\nvalue = [260, 37]", fillcolor="#e99355"] ;
3 -> 5 ;
6 [label="X[1] <= 39.5\ngini = 0.48\nsamples = 2611\nvalue = [1544, 1067]", fillcolor="#f7d8c2"] ;
2 -> 6 ;
7 [label="gini = 0.5\nsamples = 1562\nvalue = [812, 750]", fillcolor="#fdf5f0"] ;
6 -> 7 ;
8 [label="gini = 0.42\nsamples = 1049\nvalue = [732, 317]", fillcolor="#f0b88f"] ;
6 -> 8 ;
9 [label="X[0] <= 14.5\ngini = 0.42\nsamples = 1496\nvalue = [450, 1046]", fillcolor="#8ec7f0"] ;
1 -> 9 ;
10 [label="X[1] <= 21.5\ngini = 0.47\nsamples = 1082\nvalue = [403, 679]", fillcolor="#afd7f4"] ;
9 -> 10 ;
11 [label="gini = 0.49\nsamples = 216\nvalue = [126, 90]", fillcolor="#f8dbc6"] ;
10 -> 11 ;
12 [label="gini = 0.44\nsamples = 866\nvalue = [277, 589]", fillcolor="#96cbf1"] ;
10 -> 12 ;
13 [label="X[1] <= 11.0\ngini = 0.2\nsamples = 414\nvalue = [47, 367]", fillcolor="#52aae8"] ;
9 -> 13 ;
14 [label="gini = 0.44\nsamples = 52\nvalue = [17, 35]", fillcolor="#99cdf2"] ;
13 -> 14 ;
15 [label="gini = 0.15\nsamples = 362\nvalue = [30, 332]", fillcolor="#4ba6e7"] ;
13 -> 15 ;
16 [label="X[0] <= 12.5\ngini = 0.25\nsamples = 10639\nvalue = [9059, 1580]", fillcolor="#ea975c"] ;
0 -> 16 [labeldistance=2.5, labelangle=-45, headlabel="False"] ;
17 [label="X[0] <= 8.5\ngini = 0.21\nsamples = 9648\nvalue = [8501, 1147]", fillcolor="#e99254"] ;
16 -> 17 ;
18 [label="X[0] <= 0.5\ngini = 0.15\nsamples = 6052\nvalue = [5564, 488]", fillcolor="#e78c4a"] ;
17 -> 18 ;
19 [label="gini = 0.25\nsamples = 512\nvalue = [437, 75]", fillcolor="#e9975b"] ;
18 -> 19 ;
20 [label="gini = 0.14\nsamples = 5540\nvalue = [5127, 413]", fillcolor="#e78b49"] ;
18 -> 20 ;
21 [label="X[0] <= 10.5\ngini = 0.3\nsamples = 3596\nvalue = [2937, 659]", fillcolor="#eb9d65"] ;
17 -> 21 ;
22 [label="gini = 0.26\nsamples = 2217\nvalue = [1869, 348]", fillcolor="#ea985e"] ;
21 -> 22 ;
23 [label="gini = 0.35\nsamples = 1379\nvalue = [1068, 311]", fillcolor="#eda673"] ;
21 -> 23 ;
24 [label="X[0] <= 16.5\ngini = 0.49\nsamples = 991\nvalue = [558, 433]", fillcolor="#f9e3d3"] ;
16 -> 24 ;
25 [label="X[2] <= 0.5\ngini = 0.47\nsamples = 849\nvalue = [522, 327]", fillcolor="#f5d0b5"] ;
24 -> 25 ;
26 [label="gini = 0.42\nsamples = 23\nvalue = [7, 16]", fillcolor="#90c8f0"] ;
25 -> 26 ;
27 [label="gini = 0.47\nsamples = 826\nvalue = [515, 311]", fillcolor="#f5cdb1"] ;
25 -> 27 ;
28 [label="X[0] <= 18.5\ngini = 0.38\nsamples = 142\nvalue = [36, 106]", fillcolor="#7cbeee"] ;
24 -> 28 ;
29 [label="gini = 0.48\nsamples = 85\nvalue = [33, 52]", fillcolor="#b7dbf6"] ;
28 -> 29 ;
30 [label="gini = 0.1\nsamples = 57\nvalue = [3, 54]", fillcolor="#44a2e6"] ;
28 -> 30 ;
}