digraph Tree {
node [shape=box, style="filled, rounded", color="black", fontname=helvetica] ;
edge [fontname=helvetica] ;
0 [label="X[5] <= 7.98\ngini = 0.92\nsamples = 620\nvalue = [12, 1, 1, 10, 152, 49, 13, 15, 6, 6, 32, 14\n17, 9, 2, 5, 5, 7, 8, 2, 6, 8, 7, 41, 13, 2\n8, 8, 8, 1, 3, 5, 3, 2, 2, 1, 9, 1, 1, 1\n4, 1, 2, 2, 2, 7, 3, 5, 6, 4, 2, 2, 2, 6\n1, 5, 4, 5, 3, 5, 1, 1, 2, 2, 3, 1, 3, 2\n2, 1, 1, 2, 3, 2, 2, 3, 1, 4, 3, 2, 3, 1\n1, 2, 2, 1, 2]", fillcolor="#faf0db"] ;
1 [label="X[5] <= 7.01\ngini = 0.25\nsamples = 176\nvalue = [12, 1, 1, 10, 152, 0, 0, 0, 0, 0, 0, 0, 0, 0\n0, 0, 0, 0, 0, 0, 0, 0, 0, 0, 0, 0, 0, 0\n0, 0, 0, 0, 0, 0, 0, 0, 0, 0, 0, 0, 0, 0\n0, 0, 0, 0, 0, 0, 0, 0, 0, 0, 0, 0, 0, 0\n0, 0, 0, 0, 0, 0, 0, 0, 0, 0, 0, 0, 0, 0\n0, 0, 0, 0, 0, 0, 0, 0, 0, 0, 0, 0, 0, 0\n0, 0, 0]", fillcolor="#e9ba56"] ;
0 -> 1 [labeldistance=2.5, labelangle=45, headlabel="True"] ;
2 [label="X[5] <= 2.01\ngini = 0.57\nsamples = 24\nvalue = [12, 1, 1, 10, 0, 0, 0, 0, 0, 0, 0, 0, 0, 0\n0, 0, 0, 0, 0, 0, 0, 0, 0, 0, 0, 0, 0, 0\n0, 0, 0, 0, 0, 0, 0, 0, 0, 0, 0, 0, 0, 0\n0, 0, 0, 0, 0, 0, 0, 0, 0, 0, 0, 0, 0, 0\n0, 0, 0, 0, 0, 0, 0, 0, 0, 0, 0, 0, 0, 0\n0, 0, 0, 0, 0, 0, 0, 0, 0, 0, 0, 0, 0, 0\n0, 0, 0]", fillcolor="#fbede3"] ;
1 -> 2 ;
3 [label="gini = 0.0\nsamples = 12\nvalue = [12, 0, 0, 0, 0, 0, 0, 0, 0, 0, 0, 0, 0, 0\n0, 0, 0, 0, 0, 0, 0, 0, 0, 0, 0, 0, 0, 0\n0, 0, 0, 0, 0, 0, 0, 0, 0, 0, 0, 0, 0, 0\n0, 0, 0, 0, 0, 0, 0, 0, 0, 0, 0, 0, 0, 0\n0, 0, 0, 0, 0, 0, 0, 0, 0, 0, 0, 0, 0, 0\n0, 0, 0, 0, 0, 0, 0, 0, 0, 0, 0, 0, 0, 0\n0, 0, 0]", fillcolor="#e58139"] ;
2 -> 3 ;
4 [label="X[5] <= 5.62\ngini = 0.29\nsamples = 12\nvalue = [0, 1, 1, 10, 0, 0, 0, 0, 0, 0, 0, 0, 0, 0\n0, 0, 0, 0, 0, 0, 0, 0, 0, 0, 0, 0, 0, 0\n0, 0, 0, 0, 0, 0, 0, 0, 0, 0, 0, 0, 0, 0\n0, 0, 0, 0, 0, 0, 0, 0, 0, 0, 0, 0, 0, 0\n0, 0, 0, 0, 0, 0, 0, 0, 0, 0, 0, 0, 0, 0\n0, 0, 0, 0, 0, 0, 0, 0, 0, 0, 0, 0, 0, 0\n0, 0, 0]", fillcolor="#eab45d"] ;
2 -> 4 ;
5 [label="X[5] <= 4.51\ngini = 0.5\nsamples = 2\nvalue = [0, 1, 1, 0, 0, 0, 0, 0, 0, 0, 0, 0, 0, 0\n0, 0, 0, 0, 0, 0, 0, 0, 0, 0, 0, 0, 0, 0\n0, 0, 0, 0, 0, 0, 0, 0, 0, 0, 0, 0, 0, 0\n0, 0, 0, 0, 0, 0, 0, 0, 0, 0, 0, 0, 0, 0\n0, 0, 0, 0, 0, 0, 0, 0, 0, 0, 0, 0, 0, 0\n0, 0, 0, 0, 0, 0, 0, 0, 0, 0, 0, 0, 0, 0\n0, 0, 0]", fillcolor="#ffffff"] ;
4 -> 5 ;
6 [label="gini = 0.0\nsamples = 1\nvalue = [0, 1, 0, 0, 0, 0, 0, 0, 0, 0, 0, 0, 0, 0\n0, 0, 0, 0, 0, 0, 0, 0, 0, 0, 0, 0, 0, 0\n0, 0, 0, 0, 0, 0, 0, 0, 0, 0, 0, 0, 0, 0\n0, 0, 0, 0, 0, 0, 0, 0, 0, 0, 0, 0, 0, 0\n0, 0, 0, 0, 0, 0, 0, 0, 0, 0, 0, 0, 0, 0\n0, 0, 0, 0, 0, 0, 0, 0, 0, 0, 0, 0, 0, 0\n0, 0, 0]", fillcolor="#e58c39"] ;
5 -> 6 ;
7 [label="gini = 0.0\nsamples = 1\nvalue = [0, 0, 1, 0, 0, 0, 0, 0, 0, 0, 0, 0, 0, 0\n0, 0, 0, 0, 0, 0, 0, 0, 0, 0, 0, 0, 0, 0\n0, 0, 0, 0, 0, 0, 0, 0, 0, 0, 0, 0, 0, 0\n0, 0, 0, 0, 0, 0, 0, 0, 0, 0, 0, 0, 0, 0\n0, 0, 0, 0, 0, 0, 0, 0, 0, 0, 0, 0, 0, 0\n0, 0, 0, 0, 0, 0, 0, 0, 0, 0, 0, 0, 0, 0\n0, 0, 0]", fillcolor="#e59839"] ;
5 -> 7 ;
8 [label="gini = 0.0\nsamples = 10\nvalue = [0, 0, 0, 10, 0, 0, 0, 0, 0, 0, 0, 0, 0, 0\n0, 0, 0, 0, 0, 0, 0, 0, 0, 0, 0, 0, 0, 0\n0, 0, 0, 0, 0, 0, 0, 0, 0, 0, 0, 0, 0, 0\n0, 0, 0, 0, 0, 0, 0, 0, 0, 0, 0, 0, 0, 0\n0, 0, 0, 0, 0, 0, 0, 0, 0, 0, 0, 0, 0, 0\n0, 0, 0, 0, 0, 0, 0, 0, 0, 0, 0, 0, 0, 0\n0, 0, 0]", fillcolor="#e5a339"] ;
4 -> 8 ;
9 [label="gini = 0.0\nsamples = 152\nvalue = [0, 0, 0, 0, 152, 0, 0, 0, 0, 0, 0, 0, 0, 0\n0, 0, 0, 0, 0, 0, 0, 0, 0, 0, 0, 0, 0, 0\n0, 0, 0, 0, 0, 0, 0, 0, 0, 0, 0, 0, 0, 0\n0, 0, 0, 0, 0, 0, 0, 0, 0, 0, 0, 0, 0, 0\n0, 0, 0, 0, 0, 0, 0, 0, 0, 0, 0, 0, 0, 0\n0, 0, 0, 0, 0, 0, 0, 0, 0, 0, 0, 0, 0, 0\n0, 0, 0]", fillcolor="#e5ae39"] ;
1 -> 9 ;
10 [label="X[5] <= 8.86\ngini = 0.96\nsamples = 444\nvalue = [0, 0, 0, 0, 0, 49, 13, 15, 6, 6, 32, 14, 17\n9, 2, 5, 5, 7, 8, 2, 6, 8, 7, 41, 13, 2, 8\n8, 8, 1, 3, 5, 3, 2, 2, 1, 9, 1, 1, 1, 4\n1, 2, 2, 2, 7, 3, 5, 6, 4, 2, 2, 2, 6, 1\n5, 4, 5, 3, 5, 1, 1, 2, 2, 3, 1, 3, 2, 2\n1, 1, 2, 3, 2, 2, 3, 1, 4, 3, 2, 3, 1, 1\n2, 2, 1, 2]", fillcolor="#fefefb"] ;
0 -> 10 [labeldistance=2.5, labelangle=-45, headlabel="False"] ;
11 [label="gini = 0.0\nsamples = 49\nvalue = [0, 0, 0, 0, 0, 49, 0, 0, 0, 0, 0, 0, 0, 0\n0, 0, 0, 0, 0, 0, 0, 0, 0, 0, 0, 0, 0, 0\n0, 0, 0, 0, 0, 0, 0, 0, 0, 0, 0, 0, 0, 0\n0, 0, 0, 0, 0, 0, 0, 0, 0, 0, 0, 0, 0, 0\n0, 0, 0, 0, 0, 0, 0, 0, 0, 0, 0, 0, 0, 0\n0, 0, 0, 0, 0, 0, 0, 0, 0, 0, 0, 0, 0, 0\n0, 0, 0]", fillcolor="#e5ba39"] ;
10 -> 11 ;
12 [label="X[5] <= 13.93\ngini = 0.97\nsamples = 395\nvalue = [0, 0, 0, 0, 0, 0, 13, 15, 6, 6, 32, 14, 17\n9, 2, 5, 5, 7, 8, 2, 6, 8, 7, 41, 13, 2, 8\n8, 8, 1, 3, 5, 3, 2, 2, 1, 9, 1, 1, 1, 4\n1, 2, 2, 2, 7, 3, 5, 6, 4, 2, 2, 2, 6, 1\n5, 4, 5, 3, 5, 1, 1, 2, 2, 3, 1, 3, 2, 2\n1, 1, 2, 3, 2, 2, 3, 1, 4, 3, 2, 3, 1, 1\n2, 2, 1, 2]", fillcolor="#fafefa"] ;
10 -> 12 ;
13 [label="X[5] <= 12.76\ngini = 0.71\nsamples = 72\nvalue = [0, 0, 0, 0, 0, 0, 13, 15, 6, 6, 32, 0, 0, 0\n0, 0, 0, 0, 0, 0, 0, 0, 0, 0, 0, 0, 0, 0\n0, 0, 0, 0, 0, 0, 0, 0, 0, 0, 0, 0, 0, 0\n0, 0, 0, 0, 0, 0, 0, 0, 0, 0, 0, 0, 0, 0\n0, 0, 0, 0, 0, 0, 0, 0, 0, 0, 0, 0, 0, 0\n0, 0, 0, 0, 0, 0, 0, 0, 0, 0, 0, 0, 0, 0\n0, 0, 0]", fillcolor="#f2f7c4"] ;
12 -> 13 ;
14 [label="X[5] <= 10.15\ngini = 0.71\nsamples = 40\nvalue = [0, 0, 0, 0, 0, 0, 13, 15, 6, 6, 0, 0, 0, 0\n0, 0, 0, 0, 0, 0, 0, 0, 0, 0, 0, 0, 0, 0\n0, 0, 0, 0, 0, 0, 0, 0, 0, 0, 0, 0, 0, 0\n0, 0, 0, 0, 0, 0, 0, 0, 0, 0, 0, 0, 0, 0\n0, 0, 0, 0, 0, 0, 0, 0, 0, 0, 0, 0, 0, 0\n0, 0, 0, 0, 0, 0, 0, 0, 0, 0, 0, 0, 0, 0\n0, 0, 0]", fillcolor="#fdfcf0"] ;
13 -> 14 ;
15 [label="gini = 0.0\nsamples = 13\nvalue = [0, 0, 0, 0, 0, 0, 13, 0, 0, 0, 0, 0, 0, 0\n0, 0, 0, 0, 0, 0, 0, 0, 0, 0, 0, 0, 0, 0\n0, 0, 0, 0, 0, 0, 0, 0, 0, 0, 0, 0, 0, 0\n0, 0, 0, 0, 0, 0, 0, 0, 0, 0, 0, 0, 0, 0\n0, 0, 0, 0, 0, 0, 0, 0, 0, 0, 0, 0, 0, 0\n0, 0, 0, 0, 0, 0, 0, 0, 0, 0, 0, 0, 0, 0\n0, 0, 0]", fillcolor="#e5c539"] ;
14 -> 15 ;
16 [label="X[5] <= 10.82\ngini = 0.59\nsamples = 27\nvalue = [0, 0, 0, 0, 0, 0, 0, 15, 6, 6, 0, 0, 0, 0\n0, 0, 0, 0, 0, 0, 0, 0, 0, 0, 0, 0, 0, 0\n0, 0, 0, 0, 0, 0, 0, 0, 0, 0, 0, 0, 0, 0\n0, 0, 0, 0, 0, 0, 0, 0, 0, 0, 0, 0, 0, 0\n0, 0, 0, 0, 0, 0, 0, 0, 0, 0, 0, 0, 0, 0\n0, 0, 0, 0, 0, 0, 0, 0, 0, 0, 0, 0, 0, 0\n0, 0, 0]", fillcolor="#f4ebaa"] ;
14 -> 16 ;
17 [label="gini = 0.0\nsamples = 15\nvalue = [0, 0, 0, 0, 0, 0, 0, 15, 0, 0, 0, 0, 0, 0\n0, 0, 0, 0, 0, 0, 0, 0, 0, 0, 0, 0, 0, 0\n0, 0, 0, 0, 0, 0, 0, 0, 0, 0, 0, 0, 0, 0\n0, 0, 0, 0, 0, 0, 0, 0, 0, 0, 0, 0, 0, 0\n0, 0, 0, 0, 0, 0, 0, 0, 0, 0, 0, 0, 0, 0\n0, 0, 0, 0, 0, 0, 0, 0, 0, 0, 0, 0, 0, 0\n0, 0, 0]", fillcolor="#e5d139"] ;
16 -> 17 ;
18 [label="X[5] <= 11.89\ngini = 0.5\nsamples = 12\nvalue = [0, 0, 0, 0, 0, 0, 0, 0, 6, 6, 0, 0, 0, 0\n0, 0, 0, 0, 0, 0, 0, 0, 0, 0, 0, 0, 0, 0\n0, 0, 0, 0, 0, 0, 0, 0, 0, 0, 0, 0, 0, 0\n0, 0, 0, 0, 0, 0, 0, 0, 0, 0, 0, 0, 0, 0\n0, 0, 0, 0, 0, 0, 0, 0, 0, 0, 0, 0, 0, 0\n0, 0, 0, 0, 0, 0, 0, 0, 0, 0, 0, 0, 0, 0\n0, 0, 0]", fillcolor="#ffffff"] ;
16 -> 18 ;
19 [label="gini = 0.0\nsamples = 6\nvalue = [0, 0, 0, 0, 0, 0, 0, 0, 6, 0, 0, 0, 0, 0\n0, 0, 0, 0, 0, 0, 0, 0, 0, 0, 0, 0, 0, 0\n0, 0, 0, 0, 0, 0, 0, 0, 0, 0, 0, 0, 0, 0\n0, 0, 0, 0, 0, 0, 0, 0, 0, 0, 0, 0, 0, 0\n0, 0, 0, 0, 0, 0, 0, 0, 0, 0, 0, 0, 0, 0\n0, 0, 0, 0, 0, 0, 0, 0, 0, 0, 0, 0, 0, 0\n0, 0, 0]", fillcolor="#e5df39"] ;
18 -> 19 ;
20 [label="gini = 0.0\nsamples = 6\nvalue = [0, 0, 0, 0, 0, 0, 0, 0, 0, 6, 0, 0, 0, 0\n0, 0, 0, 0, 0, 0, 0, 0, 0, 0, 0, 0, 0, 0\n0, 0, 0, 0, 0, 0, 0, 0, 0, 0, 0, 0, 0, 0\n0, 0, 0, 0, 0, 0, 0, 0, 0, 0, 0, 0, 0, 0\n0, 0, 0, 0, 0, 0, 0, 0, 0, 0, 0, 0, 0, 0\n0, 0, 0, 0, 0, 0, 0, 0, 0, 0, 0, 0, 0, 0\n0, 0, 0]", fillcolor="#dfe539"] ;
18 -> 20 ;
21 [label="gini = 0.0\nsamples = 32\nvalue = [0, 0, 0, 0, 0, 0, 0, 0, 0, 0, 32, 0, 0, 0\n0, 0, 0, 0, 0, 0, 0, 0, 0, 0, 0, 0, 0, 0\n0, 0, 0, 0, 0, 0, 0, 0, 0, 0, 0, 0, 0, 0\n0, 0, 0, 0, 0, 0, 0, 0, 0, 0, 0, 0, 0, 0\n0, 0, 0, 0, 0, 0, 0, 0, 0, 0, 0, 0, 0, 0\n0, 0, 0, 0, 0, 0, 0, 0, 0, 0, 0, 0, 0, 0\n0, 0, 0]", fillcolor="#d4e539"] ;
13 -> 21 ;
22 [label="X[5] <= 15.95\ngini = 0.97\nsamples = 323\nvalue = [0, 0, 0, 0, 0, 0, 0, 0, 0, 0, 0, 14, 17, 9\n2, 5, 5, 7, 8, 2, 6, 8, 7, 41, 13, 2, 8, 8\n8, 1, 3, 5, 3, 2, 2, 1, 9, 1, 1, 1, 4, 1\n2, 2, 2, 7, 3, 5, 6, 4, 2, 2, 2, 6, 1, 5\n4, 5, 3, 5, 1, 1, 2, 2, 3, 1, 3, 2, 2, 1\n1, 2, 3, 2, 2, 3, 1, 4, 3, 2, 3, 1, 1, 2\n2, 1, 2]", fillcolor="#effdef"] ;
12 -> 22 ;
23 [label="X[5] <= 14.75\ngini = 0.5\nsamples = 31\nvalue = [0, 0, 0, 0, 0, 0, 0, 0, 0, 0, 0, 14, 17, 0\n0, 0, 0, 0, 0, 0, 0, 0, 0, 0, 0, 0, 0, 0\n0, 0, 0, 0, 0, 0, 0, 0, 0, 0, 0, 0, 0, 0\n0, 0, 0, 0, 0, 0, 0, 0, 0, 0, 0, 0, 0, 0\n0, 0, 0, 0, 0, 0, 0, 0, 0, 0, 0, 0, 0, 0\n0, 0, 0, 0, 0, 0, 0, 0, 0, 0, 0, 0, 0, 0\n0, 0, 0]", fillcolor="#f3fadc"] ;
22 -> 23 ;
24 [label="gini = 0.0\nsamples = 14\nvalue = [0, 0, 0, 0, 0, 0, 0, 0, 0, 0, 0, 14, 0, 0\n0, 0, 0, 0, 0, 0, 0, 0, 0, 0, 0, 0, 0, 0\n0, 0, 0, 0, 0, 0, 0, 0, 0, 0, 0, 0, 0, 0\n0, 0, 0, 0, 0, 0, 0, 0, 0, 0, 0, 0, 0, 0\n0, 0, 0, 0, 0, 0, 0, 0, 0, 0, 0, 0, 0, 0\n0, 0, 0, 0, 0, 0, 0, 0, 0, 0, 0, 0, 0, 0\n0, 0, 0]", fillcolor="#c8e539"] ;
23 -> 24 ;
25 [label="gini = 0.0\nsamples = 17\nvalue = [0, 0, 0, 0, 0, 0, 0, 0, 0, 0, 0, 0, 17, 0\n0, 0, 0, 0, 0, 0, 0, 0, 0, 0, 0, 0, 0, 0\n0, 0, 0, 0, 0, 0, 0, 0, 0, 0, 0, 0, 0, 0\n0, 0, 0, 0, 0, 0, 0, 0, 0, 0, 0, 0, 0, 0\n0, 0, 0, 0, 0, 0, 0, 0, 0, 0, 0, 0, 0, 0\n0, 0, 0, 0, 0, 0, 0, 0, 0, 0, 0, 0, 0, 0\n0, 0, 0]", fillcolor="#bde539"] ;
23 -> 25 ;
26 [label="X[5] <= 26.77\ngini = 0.96\nsamples = 292\nvalue = [0, 0, 0, 0, 0, 0, 0, 0, 0, 0, 0, 0, 0, 9\n2, 5, 5, 7, 8, 2, 6, 8, 7, 41, 13, 2, 8, 8\n8, 1, 3, 5, 3, 2, 2, 1, 9, 1, 1, 1, 4, 1\n2, 2, 2, 7, 3, 5, 6, 4, 2, 2, 2, 6, 1, 5\n4, 5, 3, 5, 1, 1, 2, 2, 3, 1, 3, 2, 2, 1\n1, 2, 3, 2, 2, 3, 1, 4, 3, 2, 3, 1, 1, 2\n2, 1, 2]", fillcolor="#ebfceb"] ;
22 -> 26 ;
27 [label="X[5] <= 25.96\ngini = 0.79\nsamples = 100\nvalue = [0, 0, 0, 0, 0, 0, 0, 0, 0, 0, 0, 0, 0, 9\n2, 5, 5, 7, 8, 2, 6, 8, 7, 41, 0, 0, 0, 0\n0, 0, 0, 0, 0, 0, 0, 0, 0, 0, 0, 0, 0, 0\n0, 0, 0, 0, 0, 0, 0, 0, 0, 0, 0, 0, 0, 0\n0, 0, 0, 0, 0, 0, 0, 0, 0, 0, 0, 0, 0, 0\n0, 0, 0, 0, 0, 0, 0, 0, 0, 0, 0, 0, 0, 0\n0, 0, 0]", fillcolor="#b9f6b9"] ;
26 -> 27 ;
28 [label="X[5] <= 17.05\ngini = 0.88\nsamples = 59\nvalue = [0, 0, 0, 0, 0, 0, 0, 0, 0, 0, 0, 0, 0, 9\n2, 5, 5, 7, 8, 2, 6, 8, 7, 0, 0, 0, 0, 0\n0, 0, 0, 0, 0, 0, 0, 0, 0, 0, 0, 0, 0, 0\n0, 0, 0, 0, 0, 0, 0, 0, 0, 0, 0, 0, 0, 0\n0, 0, 0, 0, 0, 0, 0, 0, 0, 0, 0, 0, 0, 0\n0, 0, 0, 0, 0, 0, 0, 0, 0, 0, 0, 0, 0, 0\n0, 0, 0]", fillcolor="#fdfefb"] ;
27 -> 28 ;
29 [label="gini = 0.0\nsamples = 9\nvalue = [0, 0, 0, 0, 0, 0, 0, 0, 0, 0, 0, 0, 0, 9\n0, 0, 0, 0, 0, 0, 0, 0, 0, 0, 0, 0, 0, 0\n0, 0, 0, 0, 0, 0, 0, 0, 0, 0, 0, 0, 0, 0\n0, 0, 0, 0, 0, 0, 0, 0, 0, 0, 0, 0, 0, 0\n0, 0, 0, 0, 0, 0, 0, 0, 0, 0, 0, 0, 0, 0\n0, 0, 0, 0, 0, 0, 0, 0, 0, 0, 0, 0, 0, 0\n0, 0, 0]", fillcolor="#b1e539"] ;
28 -> 29 ;
30 [label="gini = 0.87\nsamples = 50\nvalue = [0, 0, 0, 0, 0, 0, 0, 0, 0, 0, 0, 0, 0, 0\n2, 5, 5, 7, 8, 2, 6, 8, 7, 0, 0, 0, 0, 0\n0, 0, 0, 0, 0, 0, 0, 0, 0, 0, 0, 0, 0, 0\n0, 0, 0, 0, 0, 0, 0, 0, 0, 0, 0, 0, 0, 0\n0, 0, 0, 0, 0, 0, 0, 0, 0, 0, 0, 0, 0, 0\n0, 0, 0, 0, 0, 0, 0, 0, 0, 0, 0, 0, 0, 0\n0, 0, 0]", fillcolor="#ffffff"] ;
28 -> 30 ;
31 [label="gini = 0.0\nsamples = 41\nvalue = [0, 0, 0, 0, 0, 0, 0, 0, 0, 0, 0, 0, 0, 0\n0, 0, 0, 0, 0, 0, 0, 0, 0, 41, 0, 0, 0, 0\n0, 0, 0, 0, 0, 0, 0, 0, 0, 0, 0, 0, 0, 0\n0, 0, 0, 0, 0, 0, 0, 0, 0, 0, 0, 0, 0, 0\n0, 0, 0, 0, 0, 0, 0, 0, 0, 0, 0, 0, 0, 0\n0, 0, 0, 0, 0, 0, 0, 0, 0, 0, 0, 0, 0, 0\n0, 0, 0]", fillcolor="#39e539"] ;
27 -> 31 ;
32 [label="X[5] <= 28.2\ngini = 0.97\nsamples = 192\nvalue = [0, 0, 0, 0, 0, 0, 0, 0, 0, 0, 0, 0, 0, 0\n0, 0, 0, 0, 0, 0, 0, 0, 0, 0, 13, 2, 8, 8\n8, 1, 3, 5, 3, 2, 2, 1, 9, 1, 1, 1, 4, 1\n2, 2, 2, 7, 3, 5, 6, 4, 2, 2, 2, 6, 1, 5\n4, 5, 3, 5, 1, 1, 2, 2, 3, 1, 3, 2, 2, 1\n1, 2, 3, 2, 2, 3, 1, 4, 3, 2, 3, 1, 1, 2\n2, 1, 2]", fillcolor="#fbfefb"] ;
26 -> 32 ;
33 [label="gini = 0.0\nsamples = 13\nvalue = [0, 0, 0, 0, 0, 0, 0, 0, 0, 0, 0, 0, 0, 0\n0, 0, 0, 0, 0, 0, 0, 0, 0, 0, 13, 0, 0, 0\n0, 0, 0, 0, 0, 0, 0, 0, 0, 0, 0, 0, 0, 0\n0, 0, 0, 0, 0, 0, 0, 0, 0, 0, 0, 0, 0, 0\n0, 0, 0, 0, 0, 0, 0, 0, 0, 0, 0, 0, 0, 0\n0, 0, 0, 0, 0, 0, 0, 0, 0, 0, 0, 0, 0, 0\n0, 0, 0]", fillcolor="#39e544"] ;
32 -> 33 ;
34 [label="X[5] <= 30.85\ngini = 0.98\nsamples = 179\nvalue = [0, 0, 0, 0, 0, 0, 0, 0, 0, 0, 0, 0, 0, 0\n0, 0, 0, 0, 0, 0, 0, 0, 0, 0, 0, 2, 8, 8\n8, 1, 3, 5, 3, 2, 2, 1, 9, 1, 1, 1, 4, 1\n2, 2, 2, 7, 3, 5, 6, 4, 2, 2, 2, 6, 1, 5\n4, 5, 3, 5, 1, 1, 2, 2, 3, 1, 3, 2, 2, 1\n1, 2, 3, 2, 2, 3, 1, 4, 3, 2, 3, 1, 1, 2\n2, 1, 2]", fillcolor="#feffff"] ;
32 -> 34 ;
35 [label="gini = 0.59\nsamples = 18\nvalue = [0, 0, 0, 0, 0, 0, 0, 0, 0, 0, 0, 0, 0, 0\n0, 0, 0, 0, 0, 0, 0, 0, 0, 0, 0, 2, 8, 8\n0, 0, 0, 0, 0, 0, 0, 0, 0, 0, 0, 0, 0, 0\n0, 0, 0, 0, 0, 0, 0, 0, 0, 0, 0, 0, 0, 0\n0, 0, 0, 0, 0, 0, 0, 0, 0, 0, 0, 0, 0, 0\n0, 0, 0, 0, 0, 0, 0, 0, 0, 0, 0, 0, 0, 0\n0, 0, 0]", fillcolor="#ffffff"] ;
34 -> 35 ;
36 [label="gini = 0.98\nsamples = 161\nvalue = [0, 0, 0, 0, 0, 0, 0, 0, 0, 0, 0, 0, 0, 0\n0, 0, 0, 0, 0, 0, 0, 0, 0, 0, 0, 0, 0, 0\n8, 1, 3, 5, 3, 2, 2, 1, 9, 1, 1, 1, 4, 1\n2, 2, 2, 7, 3, 5, 6, 4, 2, 2, 2, 6, 1, 5\n4, 5, 3, 5, 1, 1, 2, 2, 3, 1, 3, 2, 2, 1\n1, 2, 3, 2, 2, 3, 1, 4, 3, 2, 3, 1, 1, 2\n2, 1, 2]", fillcolor="#feffff"] ;
34 -> 36 ;
}